<?xml version="1.0"?>
<opencv_storage>
<cascade>
  <stageType>BOOST</stageType>
  <featureType>HAAR</featureType>
  <height>24</height>
  <width>24</width>
  <stageParams>
    <boostType>GAB</boostType>
    <minHitRate>9.9000000953674316e-01</minHitRate>
    <maxFalseAlarm>3.0000001192092896e-01</maxFalseAlarm>
    <weightTrimRate>9.4999999999999996e-01</weightTrimRate>
    <maxDepth>1</maxDepth>
    <maxWeakCount>100</maxWeakCount></stageParams>
  <featureParams>
    <maxCatCount>0</maxCatCount>
    <featSize>1</featSize>
    <mode>BASIC</mode></featureParams>
  <stageNum>12</stageNum>
  <stages>
    <!-- stage 0 -->
    <_>
      <maxWeakCount>3</maxWeakCount>
      <stageThreshold>-1.2170628309249878e+00</stageThreshold>
      <weakClassifiers>
        <_>
          <internalNodes>
            0 -1 42 9.5674462616443634e-02</internalNodes>
          <leafValues>
            -9.4607955217361450e-01 4.3039590120315552e-01</leafValues></_>
        <_>
          <internalNodes>
            0 -1 149 -1.7353817820549011e-02</internalNodes>
          <leafValues>
            5.5270266532897949e-01 -7.8419393301010132e-01</leafValues></_>
        <_>
          <internalNodes>
            0 -1 44 1.1603109538555145e-02</internalNodes>
          <leafValues>
            -6.6374808549880981e-01 5.1321059465408325e-01</leafValues></_></weakClassifiers></_>
    <!-- stage 1 -->
    <_>
      <maxWeakCount>8</maxWeakCount>
      <stageThreshold>-1.6584705114364624e+00</stageThreshold>
      <weakClassifiers>
        <_>
          <internalNodes>
            0 -1 95 2.3988438770174980e-02</internalNodes>
          <leafValues>
            -8.2976973056793213e-01 4.3181818723678589e-01</leafValues></_>
        <_>
          <internalNodes>
            0 -1 65 6.9699971936643124e-03</internalNodes>
          <leafValues>
            -5.9819221496582031e-01 5.8677726984024048e-01</leafValues></_>
        <_>
          <internalNodes>
            0 -1 198 1.2999285012483597e-02</internalNodes>
          <leafValues>
            -8.8359183073043823e-01 3.0104777216911316e-01</leafValues></_>
        <_>
          <internalNodes>
            0 -1 11 5.0020990893244743e-03</internalNodes>
          <leafValues>
            -5.2332043647766113e-01 4.6882462501525879e-01</leafValues></_>
        <_>
          <internalNodes>
            0 -1 57 -7.1525340899825096e-03</internalNodes>
          <leafValues>
            5.0698304176330566e-01 -4.1439703106880188e-01</leafValues></_>
        <_>
          <internalNodes>
            0 -1 179 -5.9643196873366833e-03</internalNodes>
          <leafValues>
            5.0301557779312134e-01 -4.2464891076087952e-01</leafValues></_>
        <_>
          <internalNodes>
            0 -1 17 3.1296983361244202e-02</internalNodes>
          <leafValues>
            -5.9005421400070190e-01 2.7517589926719666e-01</leafValues></_>
        <_>
          <internalNodes>
            0 -1 133 -2.6160977780818939e-02</internalNodes>
          <leafValues>
            4.7868579626083374e-01 -3.5292914509773254e-01</leafValues></_></weakClassifiers></_>
    <!-- stage 2 -->
    <_>
      <maxWeakCount>12</maxWeakCount>
      <stageThreshold>-1.5262545347213745e+00</stageThreshold>
      <weakClassifiers>
        <_>
          <internalNodes>
            0 -1 88 1.8489109352231026e-02</internalNodes>
          <leafValues>
            -8.0134230852127075e-01 1.6394849121570587e-01</leafValues></_>
        <_>
          <internalNodes>
            0 -1 219 -6.8517886102199554e-03</internalNodes>
          <leafValues>
            3.6098331212997437e-01 -5.4305052757263184e-01</leafValues></_>
        <_>
          <internalNodes>
            0 -1 39 2.8865311294794083e-02</internalNodes>
          <leafValues>
            -7.0545464754104614e-01 2.8156957030296326e-01</leafValues></_>
        <_>
          <internalNodes>
            0 -1 52 7.6456489041447639e-03</internalNodes>
          <leafValues>
            -4.4782355427742004e-01 4.2285445332527161e-01</leafValues></_>
        <_>
          <internalNodes>
            0 -1 169 -6.6468771547079086e-03</internalNodes>
          <leafValues>
            3.5727810859680176e-01 -5.5131322145462036e-01</leafValues></_>
        <_>
          <internalNodes>
            0 -1 194 -1.7273136973381042e-01</internalNodes>
          <leafValues>
            -9.5790129899978638e-01 1.5141339600086212e-01</leafValues></_>
        <_>
          <internalNodes>
            0 -1 148 -1.3910599052906036e-02</internalNodes>
          <leafValues>
            3.6756142973899841e-01 -4.4972789287567139e-01</leafValues></_>
        <_>
          <internalNodes>
            0 -1 7 1.1448638141155243e-01</internalNodes>
          <leafValues>
            -6.8012779951095581e-01 2.1544110774993896e-01</leafValues></_>
        <_>
          <internalNodes>
            0 -1 208 2.4001211859285831e-03</internalNodes>
          <leafValues>
            -3.4801018238067627e-01 4.7641685605049133e-01</leafValues></_>
        <_>
          <internalNodes>
            0 -1 188 -3.1125475652515888e-03</internalNodes>
          <leafValues>
            3.8559040427207947e-01 -3.7015986442565918e-01</leafValues></_>
        <_>
          <internalNodes>
            0 -1 190 -2.2414480336010456e-03</internalNodes>
          <leafValues>
            4.5985773205757141e-01 -3.0082765221595764e-01</leafValues></_>
        <_>
          <internalNodes>
            0 -1 222 1.4337433967739344e-03</internalNodes>
          <leafValues>
            1.4038968086242676e-01 -8.3997660875320435e-01</leafValues></_></weakClassifiers></_>
    <!-- stage 3 -->
    <_>
      <maxWeakCount>14</maxWeakCount>
      <stageThreshold>-1.5175806283950806e+00</stageThreshold>
      <weakClassifiers>
        <_>
          <internalNodes>
            0 -1 45 5.3061977028846741e-02</internalNodes>
          <leafValues>
            -8.0425965785980225e-01 -9.8039219155907631e-03</leafValues></_>
        <_>
          <internalNodes>
            0 -1 70 -3.7586293183267117e-03</internalNodes>
          <leafValues>
            3.6579498648643494e-01 -4.6216082572937012e-01</leafValues></_>
        <_>
          <internalNodes>
            0 -1 164 -1.7990410327911377e-02</internalNodes>
          <leafValues>
            3.0084425210952759e-01 -5.2492773532867432e-01</leafValues></_>
        <_>
          <internalNodes>
            0 -1 78 7.6433926820755005e-02</internalNodes>
          <leafValues>
            -7.6811492443084717e-01 2.4557881057262421e-01</leafValues></_>
        <_>
          <internalNodes>
            0 -1 180 -5.6550977751612663e-03</internalNodes>
          <leafValues>
            2.4060547351837158e-01 -5.0824499130249023e-01</leafValues></_>
        <_>
          <internalNodes>
            0 -1 83 1.7616884782910347e-02</internalNodes>
          <leafValues>
            -4.2851346731185913e-01 3.2301521301269531e-01</leafValues></_>
        <_>
          <internalNodes>
            0 -1 48 -5.5551389232277870e-04</internalNodes>
          <leafValues>
            2.8565296530723572e-01 -4.5244047045707703e-01</leafValues></_>
        <_>
          <internalNodes>
            0 -1 106 -1.1261820793151855e-02</internalNodes>
          <leafValues>
            6.8625575304031372e-01 -1.9550816714763641e-01</leafValues></_>
        <_>
          <internalNodes>
            0 -1 74 -8.7482053786516190e-03</internalNodes>
          <leafValues>
            3.7872928380966187e-01 -2.9138666391372681e-01</leafValues></_>
        <_>
          <internalNodes>
            0 -1 156 4.4739339500665665e-03</internalNodes>
          <leafValues>
            -1.5786631405353546e-01 6.7317575216293335e-01</leafValues></_>
        <_>
          <internalNodes>
            0 -1 98 -5.1024137064814568e-04</internalNodes>
          <leafValues>
            3.6076459288597107e-01 -2.8517329692840576e-01</leafValues></_>
        <_>
          <internalNodes>
            0 -1 205 -1.5839166939258575e-02</internalNodes>
          <leafValues>
            3.5219481587409973e-01 -2.9256960749626160e-01</leafValues></_>
        <_>
          <internalNodes>
            0 -1 211 9.3178097158670425e-03</internalNodes>
          <leafValues>
            -7.4906915426254272e-01 1.3967913389205933e-01</leafValues></_>
        <_>
          <internalNodes>
            0 -1 134 1.1503379791975021e-02</internalNodes>
          <leafValues>
            -1.9510269165039063e-01 6.0151547193527222e-01</leafValues></_></weakClassifiers></_>
    <!-- stage 4 -->
    <_>
      <maxWeakCount>13</maxWeakCount>
      <stageThreshold>-1.6538540124893188e+00</stageThreshold>
      <weakClassifiers>
        <_>
          <internalNodes>
            0 -1 16 7.3407433927059174e-02</internalNodes>
          <leafValues>
            -7.0944499969482422e-01 2.6606607437133789e-01</leafValues></_>
        <_>
          <internalNodes>
            0 -1 73 -1.1170137673616409e-02</internalNodes>
          <leafValues>
            4.3318882584571838e-01 -4.3743947148323059e-01</leafValues></_>
        <_>
          <internalNodes>
            0 -1 26 -2.2705601528286934e-02</internalNodes>
          <leafValues>
            2.3775544762611389e-01 -7.2561359405517578e-01</leafValues></_>
        <_>
          <internalNodes>
            0 -1 77 -1.1754818260669708e-01</internalNodes>
          <leafValues>
            -5.8964461088180542e-01 2.7344971895217896e-01</leafValues></_>
        <_>
          <internalNodes>
            0 -1 232 -1.0666383430361748e-02</internalNodes>
          <leafValues>
            6.0976248979568481e-01 -2.4977828562259674e-01</leafValues></_>
        <_>
          <internalNodes>
            0 -1 106 -8.8745839893817902e-03</internalNodes>
          <leafValues>
            6.2568408250808716e-01 -1.8431177735328674e-01</leafValues></_>
        <_>
          <internalNodes>
            0 -1 99 1.0895673185586929e-02</internalNodes>
          <leafValues>
            -1.4411485195159912e-01 7.8036564588546753e-01</leafValues></_>
        <_>
          <internalNodes>
            0 -1 182 -8.3557572215795517e-03</internalNodes>
          <leafValues>
            3.5867744684219360e-01 -3.1076365709304810e-01</leafValues></_>
        <_>
          <internalNodes>
            0 -1 23 5.3874924778938293e-03</internalNodes>
          <leafValues>
            -2.4904115498065948e-01 4.6103399991989136e-01</leafValues></_>
        <_>
          <internalNodes>
            0 -1 143 -6.7730741575360298e-03</internalNodes>
          <leafValues>
            6.1931806802749634e-01 -1.6237702965736389e-01</leafValues></_>
        <_>
          <internalNodes>
            0 -1 111 8.8443681597709656e-03</internalNodes>
          <leafValues>
            -2.0590403676033020e-01 6.4028739929199219e-01</leafValues></_>
        <_>
          <internalNodes>
            0 -1 235 9.0710644144564867e-04</internalNodes>
          <leafValues>
            1.5511018037796021e-01 -7.4400454759597778e-01</leafValues></_>
        <_>
          <internalNodes>
            0 -1 130 3.2513763755559921e-02</internalNodes>
          <leafValues>
            1.3537164032459259e-01 -6.0361665487289429e-01</leafValues></_></weakClassifiers></_>
    <!-- stage 5 -->
    <_>
      <maxWeakCount>19</maxWeakCount>
      <stageThreshold>-1.6228352785110474e+00</stageThreshold>
      <weakClassifiers>
        <_>
          <internalNodes>
            0 -1 42 1.6000676155090332e-01</internalNodes>
          <leafValues>
            -7.7631580829620361e-01 -5.1928781904280186e-03</leafValues></_>
        <_>
          <internalNodes>
            0 -1 197 -5.1270858384668827e-03</internalNodes>
          <leafValues>
            6.1336135864257813e-01 -2.9998487234115601e-01</leafValues></_>
        <_>
          <internalNodes>
            0 -1 56 -1.8650904297828674e-02</internalNodes>
          <leafValues>
            5.5400574207305908e-01 -2.2811871767044067e-01</leafValues></_>
        <_>
          <internalNodes>
            0 -1 95 2.7620650827884674e-02</internalNodes>
          <leafValues>
            -3.8544338941574097e-01 3.0012115836143494e-01</leafValues></_>
        <_>
          <internalNodes>
            0 -1 36 1.5421941876411438e-02</internalNodes>
          <leafValues>
            -3.1939303874969482e-01 3.6796504259109497e-01</leafValues></_>
        <_>
          <internalNodes>
            0 -1 41 3.3702515065670013e-02</internalNodes>
          <leafValues>
            -7.8624397516250610e-01 1.6075694561004639e-01</leafValues></_>
        <_>
          <internalNodes>
            0 -1 64 2.2292805078905076e-04</internalNodes>
          <leafValues>
            1.3730733096599579e-01 -6.8649953603744507e-01</leafValues></_>
        <_>
          <internalNodes>
            0 -1 20 -3.1584471464157104e-02</internalNodes>
          <leafValues>
            -7.4472725391387939e-01 1.3564556837081909e-01</leafValues></_>
        <_>
          <internalNodes>
            0 -1 124 3.7208790890872478e-03</internalNodes>
          <leafValues>
            -2.0226263999938965e-01 5.4297405481338501e-01</leafValues></_>
        <_>
          <internalNodes>
            0 -1 5 -5.6741610169410706e-02</internalNodes>
          <leafValues>
            -5.7345902919769287e-01 1.7693692445755005e-01</leafValues></_>
        <_>
          <internalNodes>
            0 -1 84 3.9718397893011570e-03</internalNodes>
          <leafValues>
            -6.7140448093414307e-01 9.7580537199974060e-02</leafValues></_>
        <_>
          <internalNodes>
            0 -1 196 -5.1998528651893139e-03</internalNodes>
          <leafValues>
            4.6064931154251099e-01 -1.8606245517730713e-01</leafValues></_>
        <_>
          <internalNodes>
            0 -1 119 -3.0080839991569519e-02</internalNodes>
          <leafValues>
            -6.5588158369064331e-01 1.4949189126491547e-01</leafValues></_>
        <_>
          <internalNodes>
            0 -1 28 3.7779682315886021e-04</internalNodes>
          <leafValues>
            1.1936698853969574e-01 -6.1413180828094482e-01</leafValues></_>
        <_>
          <internalNodes>
            0 -1 129 1.2068600393831730e-02</internalNodes>
          <leafValues>
            -1.2980759143829346e-01 6.7856210470199585e-01</leafValues></_>
        <_>
          <internalNodes>
            0 -1 128 -9.8796524107456207e-03</internalNodes>
          <leafValues>
            6.8974173069000244e-01 -1.2597754597663879e-01</leafValues></_>
        <_>
          <internalNodes>
            0 -1 229 5.8995845029130578e-04</internalNodes>
          <leafValues>
            1.2265472114086151e-01 -7.0498090982437134e-01</leafValues></_>
        <_>
          <internalNodes>
            0 -1 186 -7.1337132249027491e-04</internalNodes>
          <leafValues>
            -4.3201059103012085e-01 1.7623908817768097e-01</leafValues></_>
        <_>
          <internalNodes>
            0 -1 218 -3.2025795429944992e-02</internalNodes>
          <leafValues>
            4.4235098361968994e-01 -1.8061783909797668e-01</leafValues></_></weakClassifiers></_>
    <!-- stage 6 -->
    <_>
      <maxWeakCount>23</maxWeakCount>
      <stageThreshold>-1.4603844881057739e+00</stageThreshold>
      <weakClassifiers>
        <_>
          <internalNodes>
            0 -1 166 -8.4423534572124481e-03</internalNodes>
          <leafValues>
            4.5289853587746620e-03 -6.9904178380966187e-01</leafValues></_>
        <_>
          <internalNodes>
            0 -1 140 1.3018904719501734e-03</internalNodes>
          <leafValues>
            -3.6351093649864197e-01 3.4370762109756470e-01</leafValues></_>
        <_>
          <internalNodes>
            0 -1 165 -2.0391922444105148e-02</internalNodes>
          <leafValues>
            4.8916164040565491e-01 -2.3070345818996429e-01</leafValues></_>
        <_>
          <internalNodes>
            0 -1 85 -2.5121057406067848e-03</internalNodes>
          <leafValues>
            5.1421421766281128e-01 -2.0426456630229950e-01</leafValues></_>
        <_>
          <internalNodes>
            0 -1 113 -3.3890367485582829e-03</internalNodes>
          <leafValues>
            2.3203042149543762e-01 -4.5338433980941772e-01</leafValues></_>
        <_>
          <internalNodes>
            0 -1 192 3.5719689913094044e-04</internalNodes>
          <leafValues>
            1.5991224348545074e-01 -6.5626996755599976e-01</leafValues></_>
        <_>
          <internalNodes>
            0 -1 109 9.8409457132220268e-04</internalNodes>
          <leafValues>
            -3.9831253886222839e-01 2.0713818073272705e-01</leafValues></_>
        <_>
          <internalNodes>
            0 -1 171 -7.6324358582496643e-02</internalNodes>
          <leafValues>
            1.8919107317924500e-01 -4.6197786927223206e-01</leafValues></_>
        <_>
          <internalNodes>
            0 -1 216 1.1194089893251657e-03</internalNodes>
          <leafValues>
            1.7911711335182190e-01 -4.4733154773712158e-01</leafValues></_>
        <_>
          <internalNodes>
            0 -1 13 4.3237078934907913e-03</internalNodes>
          <leafValues>
            -3.1567677855491638e-01 2.2540955245494843e-01</leafValues></_>
        <_>
          <internalNodes>
            0 -1 30 3.6552068195305765e-04</internalNodes>
          <leafValues>
            9.8138771951198578e-02 -6.5312182903289795e-01</leafValues></_>
        <_>
          <internalNodes>
            0 -1 32 -4.5861281454563141e-02</internalNodes>
          <leafValues>
            -5.7897025346755981e-01 1.1463066935539246e-01</leafValues></_>
        <_>
          <internalNodes>
            0 -1 225 9.6326100174337626e-04</internalNodes>
          <leafValues>
            8.4971740841865540e-02 -6.1638402938842773e-01</leafValues></_>
        <_>
          <internalNodes>
            0 -1 231 -1.1744815856218338e-04</internalNodes>
          <leafValues>
            2.4166193604469299e-01 -2.9365649819374084e-01</leafValues></_>
        <_>
          <internalNodes>
            0 -1 202 8.4852576255798340e-03</internalNodes>
          <leafValues>
            -7.8551185131072998e-01 9.7781769931316376e-02</leafValues></_>
        <_>
          <internalNodes>
            0 -1 139 4.5941639691591263e-03</internalNodes>
          <leafValues>
            -1.5978735685348511e-01 4.9613791704177856e-01</leafValues></_>
        <_>
          <internalNodes>
            0 -1 227 1.6344888135790825e-03</internalNodes>
          <leafValues>
            -2.3501379787921906e-01 2.9024475812911987e-01</leafValues></_>
        <_>
          <internalNodes>
            0 -1 64 -1.2461768928915262e-03</internalNodes>
          <leafValues>
            -7.3474586009979248e-01 9.6719317138195038e-02</leafValues></_>
        <_>
          <internalNodes>
            0 -1 107 1.4957567676901817e-02</internalNodes>
          <leafValues>
            -1.1346533894538879e-01 7.1688425540924072e-01</leafValues></_>
        <_>
          <internalNodes>
            0 -1 60 -1.2879439629614353e-02</internalNodes>
          <leafValues>
            4.8257404565811157e-01 -1.3583454489707947e-01</leafValues></_>
        <_>
          <internalNodes>
            0 -1 8 1.9018440507352352e-03</internalNodes>
          <leafValues>
            -6.3244765996932983e-01 1.2273333966732025e-01</leafValues></_>
        <_>
          <internalNodes>
            0 -1 174 -4.2708860710263252e-03</internalNodes>
          <leafValues>
            4.5868352055549622e-01 -1.7467664182186127e-01</leafValues></_>
        <_>
          <internalNodes>
            0 -1 100 -1.2740135192871094e-01</internalNodes>
          <leafValues>
            -8.4682780504226685e-01 9.4155363738536835e-02</leafValues></_></weakClassifiers></_>
    <!-- stage 7 -->
    <_>
      <maxWeakCount>24</maxWeakCount>
      <stageThreshold>-1.3756675720214844e+00</stageThreshold>
      <weakClassifiers>
        <_>
          <internalNodes>
            0 -1 96 4.5127533376216888e-02</internalNodes>
          <leafValues>
            -7.0113849639892578e-01 -9.4427242875099182e-02</leafValues></_>
        <_>
          <internalNodes>
            0 -1 102 -1.3398842886090279e-02</internalNodes>
          <leafValues>
            5.7409536838531494e-01 -2.4411010742187500e-01</leafValues></_>
        <_>
          <internalNodes>
            0 -1 68 1.9703027792274952e-03</internalNodes>
          <leafValues>
            -3.6231753230094910e-01 2.6390880346298218e-01</leafValues></_>
        <_>
          <internalNodes>
            0 -1 62 1.7480105161666870e-02</internalNodes>
          <leafValues>
            -2.3486059904098511e-01 4.0126278996467590e-01</leafValues></_>
        <_>
          <internalNodes>
            0 -1 118 -1.3969102874398232e-02</internalNodes>
          <leafValues>
            6.0528433322906494e-01 -1.3974325358867645e-01</leafValues></_>
        <_>
          <internalNodes>
            0 -1 59 -4.7240881249308586e-03</internalNodes>
          <leafValues>
            4.5381206274032593e-01 -1.6617657244205475e-01</leafValues></_>
        <_>
          <internalNodes>
            0 -1 114 -6.6406521946191788e-03</internalNodes>
          <leafValues>
            3.0436390638351440e-01 -2.9193323850631714e-01</leafValues></_>
        <_>
          <internalNodes>
            0 -1 1 1.1017831042408943e-02</internalNodes>
          <leafValues>
            -1.6118292510509491e-01 5.0684827566146851e-01</leafValues></_>
        <_>
          <internalNodes>
            0 -1 31 1.2412404175847769e-03</internalNodes>
          <leafValues>
            1.3308472931385040e-01 -7.0602989196777344e-01</leafValues></_>
        <_>
          <internalNodes>
            0 -1 94 -3.9493734948337078e-03</internalNodes>
          <leafValues>
            4.3553727865219116e-01 -2.0127850770950317e-01</leafValues></_>
        <_>
          <internalNodes>
            0 -1 47 -1.3085635378956795e-02</internalNodes>
          <leafValues>
            2.2224707901477814e-01 -3.8640311360359192e-01</leafValues></_>
        <_>
          <internalNodes>
            0 -1 135 -1.0805201018229127e-03</internalNodes>
          <leafValues>
            -7.0127046108245850e-01 8.5284933447837830e-02</leafValues></_>
        <_>
          <internalNodes>
            0 -1 220 -3.3306770026683807e-02</internalNodes>
          <leafValues>
            5.5493885278701782e-01 -1.4601016044616699e-01</leafValues></_>
        <_>
          <internalNodes>
            0 -1 40 -1.8265174329280853e-01</internalNodes>
          <leafValues>
            -6.8034726381301880e-01 1.1000200361013412e-01</leafValues></_>
        <_>
          <internalNodes>
            0 -1 38 6.2850251793861389e-02</internalNodes>
          <leafValues>
            7.7889099717140198e-02 -7.0569837093353271e-01</leafValues></_>
        <_>
          <internalNodes>
            0 -1 126 3.2540271058678627e-03</internalNodes>
          <leafValues>
            -1.7654779553413391e-01 3.8238844275474548e-01</leafValues></_>
        <_>
          <internalNodes>
            0 -1 157 -5.6011159904301167e-03</internalNodes>
          <leafValues>
            5.0538402795791626e-01 -1.3981974124908447e-01</leafValues></_>
        <_>
          <internalNodes>
            0 -1 236 -1.1922207195311785e-03</internalNodes>
          <leafValues>
            -7.2237586975097656e-01 9.7999982535839081e-02</leafValues></_>
        <_>
          <internalNodes>
            0 -1 204 2.1750354208052158e-03</internalNodes>
          <leafValues>
            -2.9398584365844727e-01 2.2388148307800293e-01</leafValues></_>
        <_>
          <internalNodes>
            0 -1 51 5.6728266645222902e-04</internalNodes>
          <leafValues>
            1.0670105367898941e-01 -6.1178874969482422e-01</leafValues></_>
        <_>
          <internalNodes>
            0 -1 35 -3.1621444504708052e-03</internalNodes>
          <leafValues>
            -6.8775546550750732e-01 8.9548431336879730e-02</leafValues></_>
        <_>
          <internalNodes>
            0 -1 46 1.9322574138641357e-02</internalNodes>
          <leafValues>
            9.3763232231140137e-02 -5.6278622150421143e-01</leafValues></_>
        <_>
          <internalNodes>
            0 -1 76 -1.8526673316955566e-02</internalNodes>
          <leafValues>
            4.3294444680213928e-01 -1.4784258604049683e-01</leafValues></_>
        <_>
          <internalNodes>
            0 -1 0 -1.1259554885327816e-03</internalNodes>
          <leafValues>
            -6.1379247903823853e-01 1.0098204761743546e-01</leafValues></_></weakClassifiers></_>
    <!-- stage 8 -->
    <_>
      <maxWeakCount>30</maxWeakCount>
      <stageThreshold>-1.4066511392593384e+00</stageThreshold>
      <weakClassifiers>
        <_>
          <internalNodes>
            0 -1 163 -1.8283579498529434e-02</internalNodes>
          <leafValues>
            -1.8862733244895935e-01 -7.3193538188934326e-01</leafValues></_>
        <_>
          <internalNodes>
            0 -1 180 -1.2462912127375603e-02</internalNodes>
          <leafValues>
            2.2292591631412506e-01 -4.0678745508193970e-01</leafValues></_>
        <_>
          <internalNodes>
            0 -1 198 3.3171169459819794e-02</internalNodes>
          <leafValues>
            -4.8114359378814697e-01 2.0227067172527313e-01</leafValues></_>
        <_>
          <internalNodes>
            0 -1 69 -2.6150927878916264e-03</internalNodes>
          <leafValues>
            3.3105853199958801e-01 -2.1729613840579987e-01</leafValues></_>
        <_>
          <internalNodes>
            0 -1 12 7.1282777935266495e-03</internalNodes>
          <leafValues>
            -3.5990419983863831e-01 2.1686081588268280e-01</leafValues></_>
        <_>
          <internalNodes>
            0 -1 209 -3.4711938351392746e-03</internalNodes>
          <leafValues>
            4.1434091329574585e-01 -1.7185826599597931e-01</leafValues></_>
        <_>
          <internalNodes>
            0 -1 9 -5.7650603353977203e-02</internalNodes>
          <leafValues>
            -8.0475306510925293e-01 9.6563883125782013e-02</leafValues></_>
        <_>
          <internalNodes>
            0 -1 63 2.2500386694446206e-04</internalNodes>
          <leafValues>
            8.8005475699901581e-02 -6.1941426992416382e-01</leafValues></_>
        <_>
          <internalNodes>
            0 -1 99 -1.1211663484573364e-02</internalNodes>
          <leafValues>
            3.9831423759460449e-01 -1.6966399550437927e-01</leafValues></_>
        <_>
          <internalNodes>
            0 -1 142 4.5398399233818054e-03</internalNodes>
          <leafValues>
            -1.4936134219169617e-01 5.2671933174133301e-01</leafValues></_>
        <_>
          <internalNodes>
            0 -1 66 6.0203357134014368e-04</internalNodes>
          <leafValues>
            1.0280530899763107e-01 -6.2502348423004150e-01</leafValues></_>
        <_>
          <internalNodes>
            0 -1 3 6.6231623291969299e-02</internalNodes>
          <leafValues>
            -9.3522213399410248e-02 6.7956733703613281e-01</leafValues></_>
        <_>
          <internalNodes>
            0 -1 120 1.1466321302577853e-04</internalNodes>
          <leafValues>
            -4.8586663603782654e-01 1.4334951341152191e-01</leafValues></_>
        <_>
          <internalNodes>
            0 -1 14 2.2081714123487473e-02</internalNodes>
          <leafValues>
            9.6717208623886108e-02 -6.1173814535140991e-01</leafValues></_>
        <_>
          <internalNodes>
            0 -1 138 9.4109820201992989e-04</internalNodes>
          <leafValues>
            -1.7592214047908783e-01 3.3721363544464111e-01</leafValues></_>
        <_>
          <internalNodes>
            0 -1 154 -2.0928657613694668e-03</internalNodes>
          <leafValues>
            4.7669616341590881e-01 -1.2168535590171814e-01</leafValues></_>
        <_>
          <internalNodes>
            0 -1 122 -8.1291556125506759e-04</internalNodes>
          <leafValues>
            -4.8208135366439819e-01 1.2070772796869278e-01</leafValues></_>
        <_>
          <internalNodes>
            0 -1 195 3.7544826045632362e-03</internalNodes>
          <leafValues>
            -1.0972765088081360e-01 5.8765244483947754e-01</leafValues></_>
        <_>
          <internalNodes>
            0 -1 54 3.5838214680552483e-03</internalNodes>
          <leafValues>
            1.1019631475210190e-01 -5.4174661636352539e-01</leafValues></_>
        <_>
          <internalNodes>
            0 -1 152 -1.3798478990793228e-02</internalNodes>
          <leafValues>
            4.6390125155448914e-01 -1.2785293161869049e-01</leafValues></_>
        <_>
          <internalNodes>
            0 -1 151 1.0340919718146324e-02</internalNodes>
          <leafValues>
            -1.5876679122447968e-01 5.0108861923217773e-01</leafValues></_>
        <_>
          <internalNodes>
            0 -1 6 -3.3550977706909180e-01</internalNodes>
          <leafValues>
            5.4047429561614990e-01 -9.4189412891864777e-02</leafValues></_>
        <_>
          <internalNodes>
            0 -1 15 3.4347498416900635e-01</internalNodes>
          <leafValues>
            -8.8513277471065521e-02 6.0660821199417114e-01</leafValues></_>
        <_>
          <internalNodes>
            0 -1 137 -7.2595532983541489e-03</internalNodes>
          <leafValues>
            5.8355325460433960e-01 -8.8501088321208954e-02</leafValues></_>
        <_>
          <internalNodes>
            0 -1 213 2.6333928690291941e-04</internalNodes>
          <leafValues>
            1.1449092626571655e-01 -5.0169330835342407e-01</leafValues></_>
        <_>
          <internalNodes>
            0 -1 144 -1.0157094337046146e-02</internalNodes>
          <leafValues>
            4.9438455700874329e-01 -1.2045919150114059e-01</leafValues></_>
        <_>
          <internalNodes>
            0 -1 110 5.8736493811011314e-03</internalNodes>
          <leafValues>
            -1.8978726863861084e-01 3.4600126743316650e-01</leafValues></_>
        <_>
          <internalNodes>
            0 -1 34 2.6706461794674397e-03</internalNodes>
          <leafValues>
            8.4087423980236053e-02 -7.1150761842727661e-01</leafValues></_>
        <_>
          <internalNodes>
            0 -1 89 2.1977303549647331e-03</internalNodes>
          <leafValues>
            -1.9202253222465515e-01 3.1599757075309753e-01</leafValues></_>
        <_>
          <internalNodes>
            0 -1 181 -2.8840461745858192e-03</internalNodes>
          <leafValues>
            1.9716833531856537e-01 -2.8595575690269470e-01</leafValues></_></weakClassifiers></_>
    <!-- stage 9 -->
    <_>
      <maxWeakCount>34</maxWeakCount>
      <stageThreshold>-1.3309128284454346e+00</stageThreshold>
      <weakClassifiers>
        <_>
          <internalNodes>
            0 -1 97 1.6886614263057709e-02</internalNodes>
          <leafValues>
            -7.3165738582611084e-01 -2.0627404749393463e-01</leafValues></_>
        <_>
          <internalNodes>
            0 -1 199 1.6176402568817139e-02</internalNodes>
          <leafValues>
            -4.6096885204315186e-01 1.4232163131237030e-01</leafValues></_>
        <_>
          <internalNodes>
            0 -1 191 -5.7137589901685715e-03</internalNodes>
          <leafValues>
            3.5775315761566162e-01 -2.1794210374355316e-01</leafValues></_>
        <_>
          <internalNodes>
            0 -1 67 3.6199886817485094e-03</internalNodes>
          <leafValues>
            -2.9619070887565613e-01 2.8843739628791809e-01</leafValues></_>
        <_>
          <internalNodes>
            0 -1 221 -1.4874904882162809e-03</internalNodes>
          <leafValues>
            2.4271908402442932e-01 -3.0136319994926453e-01</leafValues></_>
        <_>
          <internalNodes>
            0 -1 237 4.4469989370554686e-04</internalNodes>
          <leafValues>
            1.1196269094944000e-01 -5.8804816007614136e-01</leafValues></_>
        <_>
          <internalNodes>
            0 -1 184 2.6848413981497288e-03</internalNodes>
          <leafValues>
            -2.4617622792720795e-01 2.5647267699241638e-01</leafValues></_>
        <_>
          <internalNodes>
            0 -1 238 -4.1241943836212158e-04</internalNodes>
          <leafValues>
            -3.9803883433341980e-01 1.3139930367469788e-01</leafValues></_>
        <_>
          <internalNodes>
            0 -1 214 4.7549204900860786e-03</internalNodes>
          <leafValues>
            5.9994898736476898e-02 -9.0126848220825195e-01</leafValues></_>
        <_>
          <internalNodes>
            0 -1 10 -2.1825809963047504e-03</internalNodes>
          <leafValues>
            3.7500640749931335e-01 -1.5675869584083557e-01</leafValues></_>
        <_>
          <internalNodes>
            0 -1 116 2.0102476701140404e-03</internalNodes>
          <leafValues>
            -1.9704174995422363e-01 2.8649452328681946e-01</leafValues></_>
        <_>
          <internalNodes>
            0 -1 49 4.8587398487143219e-04</internalNodes>
          <leafValues>
            9.2906072735786438e-02 -6.6267514228820801e-01</leafValues></_>
        <_>
          <internalNodes>
            0 -1 58 -2.8336027637124062e-02</internalNodes>
          <leafValues>
            5.0827813148498535e-01 -1.2064696848392487e-01</leafValues></_>
        <_>
          <internalNodes>
            0 -1 176 8.2890759222209454e-04</internalNodes>
          <leafValues>
            7.2804227471351624e-02 -7.5828820466995239e-01</leafValues></_>
        <_>
          <internalNodes>
            0 -1 117 -3.3695664256811142e-02</internalNodes>
          <leafValues>
            -6.3267582654953003e-01 6.6605307161808014e-02</leafValues></_>
        <_>
          <internalNodes>
            0 -1 215 2.7903122827410698e-03</internalNodes>
          <leafValues>
            6.6193915903568268e-02 -6.3558304309844971e-01</leafValues></_>
        <_>
          <internalNodes>
            0 -1 105 1.0672356933355331e-02</internalNodes>
          <leafValues>
            -9.8595671355724335e-02 5.6505525112152100e-01</leafValues></_>
        <_>
          <internalNodes>
            0 -1 27 3.0364465783350170e-04</internalNodes>
          <leafValues>
            1.1856864392757416e-01 -4.5834380388259888e-01</leafValues></_>
        <_>
          <internalNodes>
            0 -1 217 4.8476243391633034e-03</internalNodes>
          <leafValues>
            -2.4778373539447784e-01 2.2522862255573273e-01</leafValues></_>
        <_>
          <internalNodes>
            0 -1 155 1.0403488762676716e-02</internalNodes>
          <leafValues>
            6.5802685916423798e-02 -7.2014063596725464e-01</leafValues></_>
        <_>
          <internalNodes>
            0 -1 93 -2.7699358761310577e-03</internalNodes>
          <leafValues>
            3.4995028376579285e-01 -1.5727564692497253e-01</leafValues></_>
        <_>
          <internalNodes>
            0 -1 172 -1.2041097506880760e-02</internalNodes>
          <leafValues>
            -6.9407719373703003e-01 7.8424595296382904e-02</leafValues></_>
        <_>
          <internalNodes>
            0 -1 177 -1.6952417790889740e-03</internalNodes>
          <leafValues>
            3.5869053006172180e-01 -1.5559959411621094e-01</leafValues></_>
        <_>
          <internalNodes>
            0 -1 175 1.7531972844153643e-03</internalNodes>
          <leafValues>
            -1.5465569496154785e-01 3.5625118017196655e-01</leafValues></_>
        <_>
          <internalNodes>
            0 -1 33 1.3110688887536526e-03</internalNodes>
          <leafValues>
            8.3729095757007599e-02 -6.0101509094238281e-01</leafValues></_>
        <_>
          <internalNodes>
            0 -1 159 5.9814960695803165e-04</internalNodes>
          <leafValues>
            7.3743298649787903e-02 -6.1075234413146973e-01</leafValues></_>
        <_>
          <internalNodes>
            0 -1 168 1.1227237060666084e-02</internalNodes>
          <leafValues>
            6.0503017157316208e-02 -7.4963325262069702e-01</leafValues></_>
        <_>
          <internalNodes>
            0 -1 75 1.5713723376393318e-02</internalNodes>
          <leafValues>
            -3.6711725592613220e-01 1.2748867273330688e-01</leafValues></_>
        <_>
          <internalNodes>
            0 -1 161 1.9629187881946564e-02</internalNodes>
          <leafValues>
            -9.0721771121025085e-02 6.2521398067474365e-01</leafValues></_>
        <_>
          <internalNodes>
            0 -1 90 -1.7231828533113003e-03</internalNodes>
          <leafValues>
            2.4986766278743744e-01 -2.0278494060039520e-01</leafValues></_>
        <_>
          <internalNodes>
            0 -1 121 6.1407694593071938e-03</internalNodes>
          <leafValues>
            -3.6020106077194214e-01 1.4165069162845612e-01</leafValues></_>
        <_>
          <internalNodes>
            0 -1 239 4.7816068399697542e-04</internalNodes>
          <leafValues>
            8.0033473670482635e-02 -5.4307341575622559e-01</leafValues></_>
        <_>
          <internalNodes>
            0 -1 87 6.5473355352878571e-03</internalNodes>
          <leafValues>
            -8.6674802005290985e-02 6.0451775789260864e-01</leafValues></_>
        <_>
          <internalNodes>
            0 -1 86 -9.8232866730540991e-04</internalNodes>
          <leafValues>
            3.4728831052780151e-01 -1.6811469197273254e-01</leafValues></_></weakClassifiers></_>
    <!-- stage 10 -->
    <_>
      <maxWeakCount>35</maxWeakCount>
      <stageThreshold>-1.4223401546478271e+00</stageThreshold>
      <weakClassifiers>
        <_>
          <internalNodes>
            0 -1 203 -3.6563193425536156e-03</internalNodes>
          <leafValues>
            1.0432191193103790e-02 -5.8886039257049561e-01</leafValues></_>
        <_>
          <internalNodes>
            0 -1 150 -3.3028129488229752e-02</internalNodes>
          <leafValues>
            1.3653646409511566e-01 -4.7860935330390930e-01</leafValues></_>
        <_>
          <internalNodes>
            0 -1 91 -7.0108653744682670e-05</internalNodes>
          <leafValues>
            1.6096033155918121e-01 -4.0387949347496033e-01</leafValues></_>
        <_>
          <internalNodes>
            0 -1 197 -7.1001509204506874e-03</internalNodes>
          <leafValues>
            5.1983588933944702e-01 -1.0475351661443710e-01</leafValues></_>
        <_>
          <internalNodes>
            0 -1 185 1.5113854315131903e-03</internalNodes>
          <leafValues>
            -1.6259892284870148e-01 3.6519655585289001e-01</leafValues></_>
        <_>
          <internalNodes>
            0 -1 61 2.0236907526850700e-02</internalNodes>
          <leafValues>
            -4.7457498311996460e-01 1.2482230365276337e-01</leafValues></_>
        <_>
          <internalNodes>
            0 -1 233 -9.7521943971514702e-03</internalNodes>
          <leafValues>
            4.2486914992332458e-01 -1.4798641204833984e-01</leafValues></_>
        <_>
          <internalNodes>
            0 -1 139 2.9716650024056435e-03</internalNodes>
          <leafValues>
            -1.6082437336444855e-01 3.7337210774421692e-01</leafValues></_>
        <_>
          <internalNodes>
            0 -1 146 6.9590806961059570e-03</internalNodes>
          <leafValues>
            -1.3486659526824951e-01 4.2123484611511230e-01</leafValues></_>
        <_>
          <internalNodes>
            0 -1 145 -2.8645959682762623e-03</internalNodes>
          <leafValues>
            4.4562825560569763e-01 -1.2645813822746277e-01</leafValues></_>
        <_>
          <internalNodes>
            0 -1 230 3.9488426409661770e-04</internalNodes>
          <leafValues>
            1.2114600837230682e-01 -6.0474842786788940e-01</leafValues></_>
        <_>
          <internalNodes>
            0 -1 103 7.5294388807378709e-05</internalNodes>
          <leafValues>
            -4.0844762325286865e-01 1.3791702687740326e-01</leafValues></_>
        <_>
          <internalNodes>
            0 -1 72 -1.4516390860080719e-02</internalNodes>
          <leafValues>
            3.0881205201148987e-01 -1.7823623120784760e-01</leafValues></_>
        <_>
          <internalNodes>
            0 -1 230 -1.0611626785248518e-03</internalNodes>
          <leafValues>
            -6.8485158681869507e-01 7.7100045979022980e-02</leafValues></_>
        <_>
          <internalNodes>
            0 -1 4 4.2987789493054152e-04</internalNodes>
          <leafValues>
            -5.6823539733886719e-01 7.8694082796573639e-02</leafValues></_>
        <_>
          <internalNodes>
            0 -1 53 -3.8752146065235138e-02</internalNodes>
          <leafValues>
            -7.7122491598129272e-01 6.0507290065288544e-02</leafValues></_>
        <_>
          <internalNodes>
            0 -1 1 1.5968734398484230e-02</internalNodes>
          <leafValues>
            -1.2181627005338669e-01 4.4909283518791199e-01</leafValues></_>
        <_>
          <internalNodes>
            0 -1 176 -9.2016533017158508e-04</internalNodes>
          <leafValues>
            -5.5151766538619995e-01 8.5448309779167175e-02</leafValues></_>
        <_>
          <internalNodes>
            0 -1 29 5.3719129413366318e-02</internalNodes>
          <leafValues>
            6.4501360058784485e-02 -6.5431720018386841e-01</leafValues></_>
        <_>
          <internalNodes>
            0 -1 193 3.1900391913950443e-03</internalNodes>
          <leafValues>
            6.4158581197261810e-02 -6.6237604618072510e-01</leafValues></_>
        <_>
          <internalNodes>
            0 -1 82 -1.2781920377165079e-03</internalNodes>
          <leafValues>
            1.3923813402652740e-01 -3.4091678261756897e-01</leafValues></_>
        <_>
          <internalNodes>
            0 -1 167 3.8910629227757454e-03</internalNodes>
          <leafValues>
            8.4570705890655518e-02 -5.7928615808486938e-01</leafValues></_>
        <_>
          <internalNodes>
            0 -1 132 -1.6862735152244568e-02</internalNodes>
          <leafValues>
            4.9138393998146057e-01 -1.0419471561908722e-01</leafValues></_>
        <_>
          <internalNodes>
            0 -1 112 1.7748601734638214e-02</internalNodes>
          <leafValues>
            -2.8643879294395447e-01 2.0281833410263062e-01</leafValues></_>
        <_>
          <internalNodes>
            0 -1 212 -3.7317986425478011e-05</internalNodes>
          <leafValues>
            1.4207860827445984e-01 -3.2535010576248169e-01</leafValues></_>
        <_>
          <internalNodes>
            0 -1 104 -7.5792376883327961e-03</internalNodes>
          <leafValues>
            3.8613370060920715e-01 -1.2639188766479492e-01</leafValues></_>
        <_>
          <internalNodes>
            0 -1 108 8.3477692678570747e-03</internalNodes>
          <leafValues>
            -1.3337732851505280e-01 4.4922986626625061e-01</leafValues></_>
        <_>
          <internalNodes>
            0 -1 22 3.9347800612449646e-01</internalNodes>
          <leafValues>
            -7.5574785470962524e-02 6.6933131217956543e-01</leafValues></_>
        <_>
          <internalNodes>
            0 -1 80 -1.8270114669576287e-03</internalNodes>
          <leafValues>
            1.3286545872688293e-01 -3.8638806343078613e-01</leafValues></_>
        <_>
          <internalNodes>
            0 -1 125 1.4695426216349006e-03</internalNodes>
          <leafValues>
            -1.6230267286300659e-01 3.1572797894477844e-01</leafValues></_>
        <_>
          <internalNodes>
            0 -1 25 -3.4603440761566162e-01</internalNodes>
          <leafValues>
            7.5796008110046387e-01 -6.3725620508193970e-02</leafValues></_>
        <_>
          <internalNodes>
            0 -1 189 -2.3889322765171528e-03</internalNodes>
          <leafValues>
            -7.6017081737518311e-01 7.9456321895122528e-02</leafValues></_>
        <_>
          <internalNodes>
            0 -1 207 1.1477461084723473e-03</internalNodes>
          <leafValues>
            -1.8908688426017761e-01 2.4115599691867828e-01</leafValues></_>
        <_>
          <internalNodes>
            0 -1 210 1.3190090656280518e-02</internalNodes>
          <leafValues>
            -5.3791964054107666e-01 7.9848729074001312e-02</leafValues></_>
        <_>
          <internalNodes>
            0 -1 200 1.7901104874908924e-03</internalNodes>
          <leafValues>
            6.5041735768318176e-02 -5.7860583066940308e-01</leafValues></_></weakClassifiers></_>
    <!-- stage 11 -->
    <_>
      <maxWeakCount>38</maxWeakCount>
      <stageThreshold>-1.3439856767654419e+00</stageThreshold>
      <weakClassifiers>
        <_>
          <internalNodes>
            0 -1 153 -2.6622605510056019e-03</internalNodes>
          <leafValues>
            -4.3611325323581696e-02 -5.7218277454376221e-01</leafValues></_>
        <_>
          <internalNodes>
            0 -1 187 -6.2111066654324532e-03</internalNodes>
          <leafValues>
            2.2494429349899292e-01 -2.8978982567787170e-01</leafValues></_>
        <_>
          <internalNodes>
            0 -1 2 -6.2866054940968752e-04</internalNodes>
          <leafValues>
            2.4985858798027039e-01 -2.6920992136001587e-01</leafValues></_>
        <_>
          <internalNodes>
            0 -1 43 1.7522262409329414e-02</internalNodes>
          <leafValues>
            -2.7280247211456299e-01 2.1981830894947052e-01</leafValues></_>
        <_>
          <internalNodes>
            0 -1 21 4.7563966363668442e-02</internalNodes>
          <leafValues>
            1.2705503404140472e-01 -6.4023911952972412e-01</leafValues></_>
        <_>
          <internalNodes>
            0 -1 201 5.2878684073220938e-05</internalNodes>
          <leafValues>
            -3.4683951735496521e-01 1.6658186912536621e-01</leafValues></_>
        <_>
          <internalNodes>
            0 -1 92 2.7729071676731110e-02</internalNodes>
          <leafValues>
            1.1577080935239792e-01 -5.1056289672851563e-01</leafValues></_>
        <_>
          <internalNodes>
            0 -1 206 -1.8570241518318653e-03</internalNodes>
          <leafValues>
            2.2526268661022186e-01 -2.2865611314773560e-01</leafValues></_>
        <_>
          <internalNodes>
            0 -1 170 -6.6395108588039875e-03</internalNodes>
          <leafValues>
            3.4762877225875854e-01 -1.3625909388065338e-01</leafValues></_>
        <_>
          <internalNodes>
            0 -1 115 4.7371024265885353e-03</internalNodes>
          <leafValues>
            -9.8841942846775055e-02 4.9559900164604187e-01</leafValues></_>
        <_>
          <internalNodes>
            0 -1 24 2.1598217426799238e-04</internalNodes>
          <leafValues>
            -2.7284413576126099e-01 1.7718249559402466e-01</leafValues></_>
        <_>
          <internalNodes>
            0 -1 136 2.5412731338292360e-04</internalNodes>
          <leafValues>
            -4.7625917196273804e-01 1.0454352200031281e-01</leafValues></_>
        <_>
          <internalNodes>
            0 -1 223 -2.5404464453458786e-02</internalNodes>
          <leafValues>
            4.7567164897918701e-01 -1.0728733241558075e-01</leafValues></_>
        <_>
          <internalNodes>
            0 -1 131 -1.8228460103273392e-02</internalNodes>
          <leafValues>
            5.8345699310302734e-01 -8.1535182893276215e-02</leafValues></_>
        <_>
          <internalNodes>
            0 -1 147 1.8408473581075668e-02</internalNodes>
          <leafValues>
            -1.2806038558483124e-01 4.1913053393363953e-01</leafValues></_>
        <_>
          <internalNodes>
            0 -1 228 -3.0519702704623342e-04</internalNodes>
          <leafValues>
            -4.5587661862373352e-01 1.0552910715341568e-01</leafValues></_>
        <_>
          <internalNodes>
            0 -1 234 2.7030188357457519e-04</internalNodes>
          <leafValues>
            7.7564544975757599e-02 -5.4577630758285522e-01</leafValues></_>
        <_>
          <internalNodes>
            0 -1 160 -2.3062312975525856e-03</internalNodes>
          <leafValues>
            2.7868217229843140e-01 -1.7881056666374207e-01</leafValues></_>
        <_>
          <internalNodes>
            0 -1 158 -7.5328946113586426e-03</internalNodes>
          <leafValues>
            4.5102763175964355e-01 -9.7667120397090912e-02</leafValues></_>
        <_>
          <internalNodes>
            0 -1 127 2.3227287456393242e-03</internalNodes>
          <leafValues>
            -1.9754098355770111e-01 3.2276824116706848e-01</leafValues></_>
        <_>
          <internalNodes>
            0 -1 81 2.5656537618488073e-03</internalNodes>
          <leafValues>
            7.6968476176261902e-02 -6.2766510248184204e-01</leafValues></_>
        <_>
          <internalNodes>
            0 -1 173 -8.4432493895292282e-03</internalNodes>
          <leafValues>
            -6.6156691312789917e-01 5.4149024188518524e-02</leafValues></_>
        <_>
          <internalNodes>
            0 -1 183 -3.4224349074065685e-03</internalNodes>
          <leafValues>
            4.7662329673767090e-01 -1.0399868339300156e-01</leafValues></_>
        <_>
          <internalNodes>
            0 -1 178 -2.4205064401030540e-02</internalNodes>
          <leafValues>
            -5.7613450288772583e-01 8.8922157883644104e-02</leafValues></_>
        <_>
          <internalNodes>
            0 -1 71 -5.4350584745407104e-02</internalNodes>
          <leafValues>
            -6.4863306283950806e-01 5.8711048215627670e-02</leafValues></_>
        <_>
          <internalNodes>
            0 -1 226 3.0151503160595894e-03</internalNodes>
          <leafValues>
            3.7811979651451111e-02 -9.1699790954589844e-01</leafValues></_>
        <_>
          <internalNodes>
            0 -1 79 -1.1463016271591187e-02</internalNodes>
          <leafValues>
            3.0490279197692871e-01 -1.4908440411090851e-01</leafValues></_>
        <_>
          <internalNodes>
            0 -1 37 1.1343872547149658e-01</internalNodes>
          <leafValues>
            -7.3788791894912720e-02 5.2580404281616211e-01</leafValues></_>
        <_>
          <internalNodes>
            0 -1 55 -3.2934272289276123e-01</internalNodes>
          <leafValues>
            4.5662567019462585e-01 -1.0343542695045471e-01</leafValues></_>
        <_>
          <internalNodes>
            0 -1 224 8.6260633543133736e-04</internalNodes>
          <leafValues>
            9.9528923630714417e-02 -4.4231075048446655e-01</leafValues></_>
        <_>
          <internalNodes>
            0 -1 141 -3.5121573600918055e-03</internalNodes>
          <leafValues>
            3.7807008624076843e-01 -1.1369301378726959e-01</leafValues></_>
        <_>
          <internalNodes>
            0 -1 108 9.5829311758279800e-03</internalNodes>
          <leafValues>
            -1.2287975847721100e-01 4.3360760807991028e-01</leafValues></_>
        <_>
          <internalNodes>
            0 -1 19 -2.2442901507019997e-02</internalNodes>
          <leafValues>
            -5.0877714157104492e-01 9.3359090387821198e-02</leafValues></_>
        <_>
          <internalNodes>
            0 -1 101 -2.2600397933274508e-03</internalNodes>
          <leafValues>
            1.5642820298671722e-01 -2.7932301163673401e-01</leafValues></_>
        <_>
          <internalNodes>
            0 -1 162 -3.8048974238336086e-04</internalNodes>
          <leafValues>
            1.6016428172588348e-01 -2.9233795404434204e-01</leafValues></_>
        <_>
          <internalNodes>
            0 -1 50 -4.4485819526016712e-03</internalNodes>
          <leafValues>
            -5.9306097030639648e-01 6.7269161343574524e-02</leafValues></_>
        <_>
          <internalNodes>
            0 -1 18 2.0332464948296547e-02</internalNodes>
          <leafValues>
            6.2411535531282425e-02 -5.7135456800460815e-01</leafValues></_>
        <_>
          <internalNodes>
            0 -1 123 1.9193213433027267e-02</internalNodes>
          <leafValues>
            5.8954093605279922e-02 -5.9027129411697388e-01</leafValues></_></weakClassifiers></_></stages>
  <features>
    <_>
      <rects>
        <_>
          0 0 1 2 -1.</_>
        <_>
          0 1 1 1 2.</_></rects>
      <tilted>0</tilted></_>
    <_>
      <rects>
        <_>
          0 0 2 24 -1.</_>
        <_>
          1 0 1 24 2.</_></rects>
      <tilted>0</tilted></_>
    <_>
      <rects>
        <_>
          0 0 4 2 -1.</_>
        <_>
          0 0 2 1 2.</_>
        <_>
          2 1 2 1 2.</_></rects>
      <tilted>0</tilted></_>
    <_>
      <rects>
        <_>
          0 0 4 24 -1.</_>
        <_>
          2 0 2 24 2.</_></rects>
      <tilted>0</tilted></_>
    <_>
      <rects>
        <_>
          0 0 3 14 -1.</_>
        <_>
          0 7 3 7 2.</_></rects>
      <tilted>0</tilted></_>
    <_>
      <rects>
        <_>
          0 1 24 10 -1.</_>
        <_>
          0 1 12 5 2.</_>
        <_>
          12 6 12 5 2.</_></rects>
      <tilted>0</tilted></_>
    <_>
      <rects>
        <_>
          0 1 24 23 -1.</_>
        <_>
          12 1 12 23 2.</_></rects>
      <tilted>0</tilted></_>
    <_>
      <rects>
        <_>
          0 1 24 12 -1.</_>
        <_>
          0 7 24 6 2.</_></rects>
      <tilted>0</tilted></_>
    <_>
      <rects>
        <_>
          0 2 3 10 -1.</_>
        <_>
          0 7 3 5 2.</_></rects>
      <tilted>0</tilted></_>
    <_>
      <rects>
        <_>
          0 2 24 6 -1.</_>
        <_>
          0 2 12 3 2.</_>
        <_>
          12 5 12 3 2.</_></rects>
      <tilted>0</tilted></_>
    <_>
      <rects>
        <_>
          0 3 4 2 -1.</_>
        <_>
          0 3 2 1 2.</_>
        <_>
          2 4 2 1 2.</_></rects>
      <tilted>0</tilted></_>
    <_>
      <rects>
        <_>
          0 4 4 10 -1.</_>
        <_>
          0 4 2 5 2.</_>
        <_>
          2 9 2 5 2.</_></rects>
      <tilted>0</tilted></_>
    <_>
      <rects>
        <_>
          0 4 6 10 -1.</_>
        <_>
          0 4 3 5 2.</_>
        <_>
          3 9 3 5 2.</_></rects>
      <tilted>0</tilted></_>
    <_>
      <rects>
        <_>
          0 5 4 10 -1.</_>
        <_>
          0 5 2 5 2.</_>
        <_>
          2 10 2 5 2.</_></rects>
      <tilted>0</tilted></_>
    <_>
      <rects>
        <_>
          0 5 20 4 -1.</_>
        <_>
          0 5 10 2 2.</_>
        <_>
          10 7 10 2 2.</_></rects>
      <tilted>0</tilted></_>
    <_>
      <rects>
        <_>
          0 5 24 19 -1.</_>
        <_>
          12 5 12 19 2.</_></rects>
      <tilted>0</tilted></_>
    <_>
      <rects>
        <_>
          0 5 23 4 -1.</_>
        <_>
          0 7 23 2 2.</_></rects>
      <tilted>0</tilted></_>
    <_>
      <rects>
        <_>
          0 5 24 4 -1.</_>
        <_>
          0 7 24 2 2.</_></rects>
      <tilted>0</tilted></_>
    <_>
      <rects>
        <_>
          0 6 20 4 -1.</_>
        <_>
          0 6 10 2 2.</_>
        <_>
          10 8 10 2 2.</_></rects>
      <tilted>0</tilted></_>
    <_>
      <rects>
        <_>
          0 6 24 4 -1.</_>
        <_>
          0 6 12 2 2.</_>
        <_>
          12 8 12 2 2.</_></rects>
      <tilted>0</tilted></_>
    <_>
      <rects>
        <_>
          0 7 22 6 -1.</_>
        <_>
          0 7 11 3 2.</_>
        <_>
          11 10 11 3 2.</_></rects>
      <tilted>0</tilted></_>
    <_>
      <rects>
        <_>
          0 7 22 8 -1.</_>
        <_>
          0 7 11 4 2.</_>
        <_>
          11 11 11 4 2.</_></rects>
      <tilted>0</tilted></_>
    <_>
      <rects>
        <_>
          0 8 24 16 -1.</_>
        <_>
          12 8 12 16 2.</_></rects>
      <tilted>0</tilted></_>
    <_>
      <rects>
        <_>
          0 9 2 15 -1.</_>
        <_>
          1 9 1 15 2.</_></rects>
      <tilted>0</tilted></_>
    <_>
      <rects>
        <_>
          0 10 2 2 -1.</_>
        <_>
          1 10 1 2 2.</_></rects>
      <tilted>0</tilted></_>
    <_>
      <rects>
        <_>
          0 10 24 14 -1.</_>
        <_>
          12 10 12 14 2.</_></rects>
      <tilted>0</tilted></_>
    <_>
      <rects>
        <_>
          0 10 24 12 -1.</_>
        <_>
          0 16 24 6 2.</_></rects>
      <tilted>0</tilted></_>
    <_>
      <rects>
        <_>
          0 11 1 2 -1.</_>
        <_>
          0 12 1 1 2.</_></rects>
      <tilted>0</tilted></_>
    <_>
      <rects>
        <_>
          0 12 1 2 -1.</_>
        <_>
          0 13 1 1 2.</_></rects>
      <tilted>0</tilted></_>
    <_>
      <rects>
        <_>
          0 13 22 8 -1.</_>
        <_>
          0 13 11 4 2.</_>
        <_>
          11 17 11 4 2.</_></rects>
      <tilted>0</tilted></_>
    <_>
      <rects>
        <_>
          0 14 1 2 -1.</_>
        <_>
          0 15 1 1 2.</_></rects>
      <tilted>0</tilted></_>
    <_>
      <rects>
        <_>
          0 15 4 2 -1.</_>
        <_>
          0 16 4 1 2.</_></rects>
      <tilted>0</tilted></_>
    <_>
      <rects>
        <_>
          0 15 22 8 -1.</_>
        <_>
          0 15 11 4 2.</_>
        <_>
          11 19 11 4 2.</_></rects>
      <tilted>0</tilted></_>
    <_>
      <rects>
        <_>
          0 16 3 2 -1.</_>
        <_>
          0 17 3 1 2.</_></rects>
      <tilted>0</tilted></_>
    <_>
      <rects>
        <_>
          0 17 4 2 -1.</_>
        <_>
          0 18 4 1 2.</_></rects>
      <tilted>0</tilted></_>
    <_>
      <rects>
        <_>
          0 18 4 2 -1.</_>
        <_>
          0 19 4 1 2.</_></rects>
      <tilted>0</tilted></_>
    <_>
      <rects>
        <_>
          0 18 10 6 -1.</_>
        <_>
          0 18 5 3 2.</_>
        <_>
          5 21 5 3 2.</_></rects>
      <tilted>0</tilted></_>
    <_>
      <rects>
        <_>
          0 20 24 4 -1.</_>
        <_>
          12 20 12 4 2.</_></rects>
      <tilted>0</tilted></_>
    <_>
      <rects>
        <_>
          1 1 22 8 -1.</_>
        <_>
          1 1 11 4 2.</_>
        <_>
          12 5 11 4 2.</_></rects>
      <tilted>0</tilted></_>
    <_>
      <rects>
        <_>
          1 4 6 8 -1.</_>
        <_>
          1 8 6 4 2.</_></rects>
      <tilted>0</tilted></_>
    <_>
      <rects>
        <_>
          1 4 21 3 -1.</_>
        <_>
          8 4 7 3 2.</_></rects>
      <tilted>0</tilted></_>
    <_>
      <rects>
        <_>
          1 4 14 8 -1.</_>
        <_>
          1 8 14 4 2.</_></rects>
      <tilted>0</tilted></_>
    <_>
      <rects>
        <_>
          1 4 21 8 -1.</_>
        <_>
          1 8 21 4 2.</_></rects>
      <tilted>0</tilted></_>
    <_>
      <rects>
        <_>
          1 5 5 4 -1.</_>
        <_>
          1 7 5 2 2.</_></rects>
      <tilted>0</tilted></_>
    <_>
      <rects>
        <_>
          1 5 6 4 -1.</_>
        <_>
          1 7 6 2 2.</_></rects>
      <tilted>0</tilted></_>
    <_>
      <rects>
        <_>
          1 5 22 4 -1.</_>
        <_>
          1 7 22 2 2.</_></rects>
      <tilted>0</tilted></_>
    <_>
      <rects>
        <_>
          1 7 22 4 -1.</_>
        <_>
          1 7 11 2 2.</_>
        <_>
          12 9 11 2 2.</_></rects>
      <tilted>0</tilted></_>
    <_>
      <rects>
        <_>
          1 10 14 6 -1.</_>
        <_>
          1 13 14 3 2.</_></rects>
      <tilted>0</tilted></_>
    <_>
      <rects>
        <_>
          1 13 6 2 -1.</_>
        <_>
          1 14 6 1 2.</_></rects>
      <tilted>0</tilted></_>
    <_>
      <rects>
        <_>
          1 14 2 2 -1.</_>
        <_>
          1 15 2 1 2.</_></rects>
      <tilted>0</tilted></_>
    <_>
      <rects>
        <_>
          1 17 5 2 -1.</_>
        <_>
          1 18 5 1 2.</_></rects>
      <tilted>0</tilted></_>
    <_>
      <rects>
        <_>
          1 18 1 2 -1.</_>
        <_>
          1 19 1 1 2.</_></rects>
      <tilted>0</tilted></_>
    <_>
      <rects>
        <_>
          1 18 8 6 -1.</_>
        <_>
          1 18 4 3 2.</_>
        <_>
          5 21 4 3 2.</_></rects>
      <tilted>0</tilted></_>
    <_>
      <rects>
        <_>
          1 21 9 1 -1.</_>
        <_>
          4 21 3 1 2.</_></rects>
      <tilted>0</tilted></_>
    <_>
      <rects>
        <_>
          1 21 7 2 -1.</_>
        <_>
          1 22 7 1 2.</_></rects>
      <tilted>0</tilted></_>
    <_>
      <rects>
        <_>
          2 0 22 24 -1.</_>
        <_>
          13 0 11 24 2.</_></rects>
      <tilted>0</tilted></_>
    <_>
      <rects>
        <_>
          2 0 18 2 -1.</_>
        <_>
          2 1 18 1 2.</_></rects>
      <tilted>0</tilted></_>
    <_>
      <rects>
        <_>
          2 0 19 2 -1.</_>
        <_>
          2 1 19 1 2.</_></rects>
      <tilted>0</tilted></_>
    <_>
      <rects>
        <_>
          2 1 21 2 -1.</_>
        <_>
          2 2 21 1 2.</_></rects>
      <tilted>0</tilted></_>
    <_>
      <rects>
        <_>
          2 4 5 2 -1.</_>
        <_>
          2 5 5 1 2.</_></rects>
      <tilted>0</tilted></_>
    <_>
      <rects>
        <_>
          2 4 21 2 -1.</_>
        <_>
          2 5 21 1 2.</_></rects>
      <tilted>0</tilted></_>
    <_>
      <rects>
        <_>
          2 5 14 4 -1.</_>
        <_>
          2 7 14 2 2.</_></rects>
      <tilted>0</tilted></_>
    <_>
      <rects>
        <_>
          2 5 21 2 -1.</_>
        <_>
          2 6 21 1 2.</_></rects>
      <tilted>0</tilted></_>
    <_>
      <rects>
        <_>
          2 13 1 2 -1.</_>
        <_>
          2 14 1 1 2.</_></rects>
      <tilted>0</tilted></_>
    <_>
      <rects>
        <_>
          2 14 1 2 -1.</_>
        <_>
          2 15 1 1 2.</_></rects>
      <tilted>0</tilted></_>
    <_>
      <rects>
        <_>
          2 18 6 6 -1.</_>
        <_>
          2 18 3 3 2.</_>
        <_>
          5 21 3 3 2.</_></rects>
      <tilted>0</tilted></_>
    <_>
      <rects>
        <_>
          2 19 1 2 -1.</_>
        <_>
          2 20 1 1 2.</_></rects>
      <tilted>0</tilted></_>
    <_>
      <rects>
        <_>
          2 19 6 4 -1.</_>
        <_>
          2 19 3 2 2.</_>
        <_>
          5 21 3 2 2.</_></rects>
      <tilted>0</tilted></_>
    <_>
      <rects>
        <_>
          2 20 6 4 -1.</_>
        <_>
          2 20 3 2 2.</_>
        <_>
          5 22 3 2 2.</_></rects>
      <tilted>0</tilted></_>
    <_>
      <rects>
        <_>
          3 0 3 2 -1.</_>
        <_>
          3 1 3 1 2.</_></rects>
      <tilted>0</tilted></_>
    <_>
      <rects>
        <_>
          3 0 6 2 -1.</_>
        <_>
          3 1 6 1 2.</_></rects>
      <tilted>0</tilted></_>
    <_>
      <rects>
        <_>
          3 0 18 8 -1.</_>
        <_>
          3 0 9 4 2.</_>
        <_>
          12 4 9 4 2.</_></rects>
      <tilted>0</tilted></_>
    <_>
      <rects>
        <_>
          3 0 14 2 -1.</_>
        <_>
          3 1 14 1 2.</_></rects>
      <tilted>0</tilted></_>
    <_>
      <rects>
        <_>
          3 0 16 2 -1.</_>
        <_>
          3 1 16 1 2.</_></rects>
      <tilted>0</tilted></_>
    <_>
      <rects>
        <_>
          3 1 4 6 -1.</_>
        <_>
          3 4 4 3 2.</_></rects>
      <tilted>0</tilted></_>
    <_>
      <rects>
        <_>
          3 1 10 7 -1.</_>
        <_>
          8 1 5 7 2.</_></rects>
      <tilted>0</tilted></_>
    <_>
      <rects>
        <_>
          3 1 17 2 -1.</_>
        <_>
          3 2 17 1 2.</_></rects>
      <tilted>0</tilted></_>
    <_>
      <rects>
        <_>
          3 4 18 3 -1.</_>
        <_>
          9 4 6 3 2.</_></rects>
      <tilted>0</tilted></_>
    <_>
      <rects>
        <_>
          3 4 21 8 -1.</_>
        <_>
          3 8 21 4 2.</_></rects>
      <tilted>0</tilted></_>
    <_>
      <rects>
        <_>
          3 12 18 2 -1.</_>
        <_>
          3 13 18 1 2.</_></rects>
      <tilted>0</tilted></_>
    <_>
      <rects>
        <_>
          3 13 6 8 -1.</_>
        <_>
          3 17 6 4 2.</_></rects>
      <tilted>0</tilted></_>
    <_>
      <rects>
        <_>
          3 22 4 2 -1.</_>
        <_>
          3 23 4 1 2.</_></rects>
      <tilted>0</tilted></_>
    <_>
      <rects>
        <_>
          4 0 2 8 -1.</_>
        <_>
          4 4 2 4 2.</_></rects>
      <tilted>0</tilted></_>
    <_>
      <rects>
        <_>
          4 0 8 7 -1.</_>
        <_>
          8 0 4 7 2.</_></rects>
      <tilted>0</tilted></_>
    <_>
      <rects>
        <_>
          4 3 1 12 -1.</_>
        <_>
          4 9 1 6 2.</_></rects>
      <tilted>0</tilted></_>
    <_>
      <rects>
        <_>
          4 3 2 2 -1.</_>
        <_>
          4 4 2 1 2.</_></rects>
      <tilted>0</tilted></_>
    <_>
      <rects>
        <_>
          4 4 1 2 -1.</_>
        <_>
          4 5 1 1 2.</_></rects>
      <tilted>0</tilted></_>
    <_>
      <rects>
        <_>
          4 4 5 2 -1.</_>
        <_>
          4 5 5 1 2.</_></rects>
      <tilted>0</tilted></_>
    <_>
      <rects>
        <_>
          4 4 10 3 -1.</_>
        <_>
          9 4 5 3 2.</_></rects>
      <tilted>0</tilted></_>
    <_>
      <rects>
        <_>
          4 5 2 2 -1.</_>
        <_>
          4 6 2 1 2.</_></rects>
      <tilted>0</tilted></_>
    <_>
      <rects>
        <_>
          4 11 4 3 -1.</_>
        <_>
          6 11 2 3 2.</_></rects>
      <tilted>0</tilted></_>
    <_>
      <rects>
        <_>
          4 13 1 2 -1.</_>
        <_>
          4 14 1 1 2.</_></rects>
      <tilted>0</tilted></_>
    <_>
      <rects>
        <_>
          4 16 14 8 -1.</_>
        <_>
          4 16 7 4 2.</_>
        <_>
          11 20 7 4 2.</_></rects>
      <tilted>0</tilted></_>
    <_>
      <rects>
        <_>
          4 18 6 2 -1.</_>
        <_>
          4 18 3 1 2.</_>
        <_>
          7 19 3 1 2.</_></rects>
      <tilted>0</tilted></_>
    <_>
      <rects>
        <_>
          4 19 8 2 -1.</_>
        <_>
          4 19 4 1 2.</_>
        <_>
          8 20 4 1 2.</_></rects>
      <tilted>0</tilted></_>
    <_>
      <rects>
        <_>
          5 1 8 6 -1.</_>
        <_>
          9 1 4 6 2.</_></rects>
      <tilted>0</tilted></_>
    <_>
      <rects>
        <_>
          5 1 8 8 -1.</_>
        <_>
          9 1 4 8 2.</_></rects>
      <tilted>0</tilted></_>
    <_>
      <rects>
        <_>
          5 4 8 3 -1.</_>
        <_>
          9 4 4 3 2.</_></rects>
      <tilted>0</tilted></_>
    <_>
      <rects>
        <_>
          5 18 2 3 -1.</_>
        <_>
          6 18 1 3 2.</_></rects>
      <tilted>0</tilted></_>
    <_>
      <rects>
        <_>
          5 18 12 2 -1.</_>
        <_>
          5 19 12 1 2.</_></rects>
      <tilted>0</tilted></_>
    <_>
      <rects>
        <_>
          6 14 14 10 -1.</_>
        <_>
          6 19 14 5 2.</_></rects>
      <tilted>0</tilted></_>
    <_>
      <rects>
        <_>
          6 15 2 6 -1.</_>
        <_>
          6 18 2 3 2.</_></rects>
      <tilted>0</tilted></_>
    <_>
      <rects>
        <_>
          6 17 11 2 -1.</_>
        <_>
          6 18 11 1 2.</_></rects>
      <tilted>0</tilted></_>
    <_>
      <rects>
        <_>
          6 18 2 6 -1.</_>
        <_>
          6 21 2 3 2.</_></rects>
      <tilted>0</tilted></_>
    <_>
      <rects>
        <_>
          6 18 6 2 -1.</_>
        <_>
          6 19 6 1 2.</_></rects>
      <tilted>0</tilted></_>
    <_>
      <rects>
        <_>
          6 18 8 2 -1.</_>
        <_>
          6 19 8 1 2.</_></rects>
      <tilted>0</tilted></_>
    <_>
      <rects>
        <_>
          6 18 10 2 -1.</_>
        <_>
          6 19 10 1 2.</_></rects>
      <tilted>0</tilted></_>
    <_>
      <rects>
        <_>
          6 18 11 2 -1.</_>
        <_>
          6 19 11 1 2.</_></rects>
      <tilted>0</tilted></_>
    <_>
      <rects>
        <_>
          6 18 12 2 -1.</_>
        <_>
          6 19 12 1 2.</_></rects>
      <tilted>0</tilted></_>
    <_>
      <rects>
        <_>
          6 19 3 4 -1.</_>
        <_>
          6 21 3 2 2.</_></rects>
      <tilted>0</tilted></_>
    <_>
      <rects>
        <_>
          6 19 11 2 -1.</_>
        <_>
          6 20 11 1 2.</_></rects>
      <tilted>0</tilted></_>
    <_>
      <rects>
        <_>
          6 19 12 2 -1.</_>
        <_>
          6 20 12 1 2.</_></rects>
      <tilted>0</tilted></_>
    <_>
      <rects>
        <_>
          7 0 6 9 -1.</_>
        <_>
          10 0 3 9 2.</_></rects>
      <tilted>0</tilted></_>
    <_>
      <rects>
        <_>
          7 0 7 4 -1.</_>
        <_>
          7 2 7 2 2.</_></rects>
      <tilted>0</tilted></_>
    <_>
      <rects>
        <_>
          7 0 15 2 -1.</_>
        <_>
          7 1 15 1 2.</_></rects>
      <tilted>0</tilted></_>
    <_>
      <rects>
        <_>
          7 13 9 2 -1.</_>
        <_>
          7 14 9 1 2.</_></rects>
      <tilted>0</tilted></_>
    <_>
      <rects>
        <_>
          7 15 11 2 -1.</_>
        <_>
          7 16 11 1 2.</_></rects>
      <tilted>0</tilted></_>
    <_>
      <rects>
        <_>
          7 16 12 8 -1.</_>
        <_>
          7 16 6 4 2.</_>
        <_>
          13 20 6 4 2.</_></rects>
      <tilted>0</tilted></_>
    <_>
      <rects>
        <_>
          7 18 9 2 -1.</_>
        <_>
          7 19 9 1 2.</_></rects>
      <tilted>0</tilted></_>
    <_>
      <rects>
        <_>
          7 20 9 1 -1.</_>
        <_>
          10 20 3 1 2.</_></rects>
      <tilted>0</tilted></_>
    <_>
      <rects>
        <_>
          8 6 6 2 -1.</_>
        <_>
          8 7 6 1 2.</_></rects>
      <tilted>0</tilted></_>
    <_>
      <rects>
        <_>
          8 7 10 4 -1.</_>
        <_>
          8 9 10 2 2.</_></rects>
      <tilted>0</tilted></_>
    <_>
      <rects>
        <_>
          8 8 7 2 -1.</_>
        <_>
          8 9 7 1 2.</_></rects>
      <tilted>0</tilted></_>
    <_>
      <rects>
        <_>
          8 14 6 10 -1.</_>
        <_>
          8 14 3 5 2.</_>
        <_>
          11 19 3 5 2.</_></rects>
      <tilted>0</tilted></_>
    <_>
      <rects>
        <_>
          8 14 9 2 -1.</_>
        <_>
          8 15 9 1 2.</_></rects>
      <tilted>0</tilted></_>
    <_>
      <rects>
        <_>
          8 16 6 2 -1.</_>
        <_>
          8 17 6 1 2.</_></rects>
      <tilted>0</tilted></_>
    <_>
      <rects>
        <_>
          8 19 4 2 -1.</_>
        <_>
          8 20 4 1 2.</_></rects>
      <tilted>0</tilted></_>
    <_>
      <rects>
        <_>
          8 19 12 2 -1.</_>
        <_>
          8 19 6 1 2.</_>
        <_>
          14 20 6 1 2.</_></rects>
      <tilted>0</tilted></_>
    <_>
      <rects>
        <_>
          8 19 8 2 -1.</_>
        <_>
          8 20 8 1 2.</_></rects>
      <tilted>0</tilted></_>
    <_>
      <rects>
        <_>
          8 19 9 2 -1.</_>
        <_>
          8 20 9 1 2.</_></rects>
      <tilted>0</tilted></_>
    <_>
      <rects>
        <_>
          9 0 4 24 -1.</_>
        <_>
          9 12 4 12 2.</_></rects>
      <tilted>0</tilted></_>
    <_>
      <rects>
        <_>
          9 2 4 8 -1.</_>
        <_>
          11 2 2 8 2.</_></rects>
      <tilted>0</tilted></_>
    <_>
      <rects>
        <_>
          9 3 4 10 -1.</_>
        <_>
          11 3 2 10 2.</_></rects>
      <tilted>0</tilted></_>
    <_>
      <rects>
        <_>
          9 3 10 7 -1.</_>
        <_>
          14 3 5 7 2.</_></rects>
      <tilted>0</tilted></_>
    <_>
      <rects>
        <_>
          9 6 4 5 -1.</_>
        <_>
          11 6 2 5 2.</_></rects>
      <tilted>0</tilted></_>
    <_>
      <rects>
        <_>
          9 7 6 2 -1.</_>
        <_>
          9 8 6 1 2.</_></rects>
      <tilted>0</tilted></_>
    <_>
      <rects>
        <_>
          9 7 7 2 -1.</_>
        <_>
          9 8 7 1 2.</_></rects>
      <tilted>0</tilted></_>
    <_>
      <rects>
        <_>
          9 12 4 2 -1.</_>
        <_>
          9 13 4 1 2.</_></rects>
      <tilted>0</tilted></_>
    <_>
      <rects>
        <_>
          9 14 2 2 -1.</_>
        <_>
          9 15 2 1 2.</_></rects>
      <tilted>0</tilted></_>
    <_>
      <rects>
        <_>
          9 14 7 2 -1.</_>
        <_>
          9 15 7 1 2.</_></rects>
      <tilted>0</tilted></_>
    <_>
      <rects>
        <_>
          9 15 7 2 -1.</_>
        <_>
          9 16 7 1 2.</_></rects>
      <tilted>0</tilted></_>
    <_>
      <rects>
        <_>
          9 18 2 2 -1.</_>
        <_>
          9 19 2 1 2.</_></rects>
      <tilted>0</tilted></_>
    <_>
      <rects>
        <_>
          9 18 4 2 -1.</_>
        <_>
          9 19 4 1 2.</_></rects>
      <tilted>0</tilted></_>
    <_>
      <rects>
        <_>
          9 19 6 2 -1.</_>
        <_>
          9 20 6 1 2.</_></rects>
      <tilted>0</tilted></_>
    <_>
      <rects>
        <_>
          9 19 7 2 -1.</_>
        <_>
          9 20 7 1 2.</_></rects>
      <tilted>0</tilted></_>
    <_>
      <rects>
        <_>
          9 20 4 2 -1.</_>
        <_>
          9 21 4 1 2.</_></rects>
      <tilted>0</tilted></_>
    <_>
      <rects>
        <_>
          9 20 6 2 -1.</_>
        <_>
          9 21 6 1 2.</_></rects>
      <tilted>0</tilted></_>
    <_>
      <rects>
        <_>
          10 1 4 12 -1.</_>
        <_>
          12 1 2 12 2.</_></rects>
      <tilted>0</tilted></_>
    <_>
      <rects>
        <_>
          10 1 8 5 -1.</_>
        <_>
          14 1 4 5 2.</_></rects>
      <tilted>0</tilted></_>
    <_>
      <rects>
        <_>
          10 1 8 6 -1.</_>
        <_>
          14 1 4 6 2.</_></rects>
      <tilted>0</tilted></_>
    <_>
      <rects>
        <_>
          10 1 10 8 -1.</_>
        <_>
          15 1 5 8 2.</_></rects>
      <tilted>0</tilted></_>
    <_>
      <rects>
        <_>
          10 3 4 7 -1.</_>
        <_>
          12 3 2 7 2.</_></rects>
      <tilted>0</tilted></_>
    <_>
      <rects>
        <_>
          10 4 4 5 -1.</_>
        <_>
          12 4 2 5 2.</_></rects>
      <tilted>0</tilted></_>
    <_>
      <rects>
        <_>
          10 13 2 2 -1.</_>
        <_>
          10 14 2 1 2.</_></rects>
      <tilted>0</tilted></_>
    <_>
      <rects>
        <_>
          10 14 2 2 -1.</_>
        <_>
          10 15 2 1 2.</_></rects>
      <tilted>0</tilted></_>
    <_>
      <rects>
        <_>
          10 16 4 8 -1.</_>
        <_>
          10 16 2 4 2.</_>
        <_>
          12 20 2 4 2.</_></rects>
      <tilted>0</tilted></_>
    <_>
      <rects>
        <_>
          10 18 4 2 -1.</_>
        <_>
          10 19 4 1 2.</_></rects>
      <tilted>0</tilted></_>
    <_>
      <rects>
        <_>
          10 19 5 2 -1.</_>
        <_>
          10 20 5 1 2.</_></rects>
      <tilted>0</tilted></_>
    <_>
      <rects>
        <_>
          10 19 12 2 -1.</_>
        <_>
          10 19 6 1 2.</_>
        <_>
          16 20 6 1 2.</_></rects>
      <tilted>0</tilted></_>
    <_>
      <rects>
        <_>
          11 0 1 2 -1.</_>
        <_>
          11 1 1 1 2.</_></rects>
      <tilted>0</tilted></_>
    <_>
      <rects>
        <_>
          11 0 8 2 -1.</_>
        <_>
          11 0 4 1 2.</_>
        <_>
          15 1 4 1 2.</_></rects>
      <tilted>0</tilted></_>
    <_>
      <rects>
        <_>
          11 1 4 12 -1.</_>
        <_>
          13 1 2 12 2.</_></rects>
      <tilted>0</tilted></_>
    <_>
      <rects>
        <_>
          11 1 3 2 -1.</_>
        <_>
          11 2 3 1 2.</_></rects>
      <tilted>0</tilted></_>
    <_>
      <rects>
        <_>
          11 1 6 6 -1.</_>
        <_>
          14 1 3 6 2.</_></rects>
      <tilted>0</tilted></_>
    <_>
      <rects>
        <_>
          11 1 8 7 -1.</_>
        <_>
          15 1 4 7 2.</_></rects>
      <tilted>0</tilted></_>
    <_>
      <rects>
        <_>
          11 2 4 11 -1.</_>
        <_>
          13 2 2 11 2.</_></rects>
      <tilted>0</tilted></_>
    <_>
      <rects>
        <_>
          11 5 8 1 -1.</_>
        <_>
          15 5 4 1 2.</_></rects>
      <tilted>0</tilted></_>
    <_>
      <rects>
        <_>
          11 7 3 2 -1.</_>
        <_>
          11 8 3 1 2.</_></rects>
      <tilted>0</tilted></_>
    <_>
      <rects>
        <_>
          11 16 1 8 -1.</_>
        <_>
          11 20 1 4 2.</_></rects>
      <tilted>0</tilted></_>
    <_>
      <rects>
        <_>
          12 0 7 6 -1.</_>
        <_>
          12 3 7 3 2.</_></rects>
      <tilted>0</tilted></_>
    <_>
      <rects>
        <_>
          12 3 2 12 -1.</_>
        <_>
          13 3 1 12 2.</_></rects>
      <tilted>0</tilted></_>
    <_>
      <rects>
        <_>
          12 7 9 4 -1.</_>
        <_>
          15 7 3 4 2.</_></rects>
      <tilted>0</tilted></_>
    <_>
      <rects>
        <_>
          12 14 1 10 -1.</_>
        <_>
          12 19 1 5 2.</_></rects>
      <tilted>0</tilted></_>
    <_>
      <rects>
        <_>
          12 16 1 8 -1.</_>
        <_>
          12 20 1 4 2.</_></rects>
      <tilted>0</tilted></_>
    <_>
      <rects>
        <_>
          12 18 4 2 -1.</_>
        <_>
          12 19 4 1 2.</_></rects>
      <tilted>0</tilted></_>
    <_>
      <rects>
        <_>
          12 19 2 2 -1.</_>
        <_>
          12 20 2 1 2.</_></rects>
      <tilted>0</tilted></_>
    <_>
      <rects>
        <_>
          13 0 2 1 -1.</_>
        <_>
          14 0 1 1 2.</_></rects>
      <tilted>0</tilted></_>
    <_>
      <rects>
        <_>
          13 19 2 2 -1.</_>
        <_>
          13 20 2 1 2.</_></rects>
      <tilted>0</tilted></_>
    <_>
      <rects>
        <_>
          14 0 10 8 -1.</_>
        <_>
          14 0 5 4 2.</_>
        <_>
          19 4 5 4 2.</_></rects>
      <tilted>0</tilted></_>
    <_>
      <rects>
        <_>
          14 18 8 6 -1.</_>
        <_>
          14 18 4 3 2.</_>
        <_>
          18 21 4 3 2.</_></rects>
      <tilted>0</tilted></_>
    <_>
      <rects>
        <_>
          14 18 10 6 -1.</_>
        <_>
          14 18 5 3 2.</_>
        <_>
          19 21 5 3 2.</_></rects>
      <tilted>0</tilted></_>
    <_>
      <rects>
        <_>
          14 20 8 4 -1.</_>
        <_>
          14 20 4 2 2.</_>
        <_>
          18 22 4 2 2.</_></rects>
      <tilted>0</tilted></_>
    <_>
      <rects>
        <_>
          15 0 5 8 -1.</_>
        <_>
          15 4 5 4 2.</_></rects>
      <tilted>0</tilted></_>
    <_>
      <rects>
        <_>
          15 4 4 2 -1.</_>
        <_>
          15 4 2 1 2.</_>
        <_>
          17 5 2 1 2.</_></rects>
      <tilted>0</tilted></_>
    <_>
      <rects>
        <_>
          15 16 6 4 -1.</_>
        <_>
          15 16 3 2 2.</_>
        <_>
          18 18 3 2 2.</_></rects>
      <tilted>0</tilted></_>
    <_>
      <rects>
        <_>
          15 18 4 2 -1.</_>
        <_>
          15 18 2 1 2.</_>
        <_>
          17 19 2 1 2.</_></rects>
      <tilted>0</tilted></_>
    <_>
      <rects>
        <_>
          15 18 2 6 -1.</_>
        <_>
          15 21 2 3 2.</_></rects>
      <tilted>0</tilted></_>
    <_>
      <rects>
        <_>
          15 19 6 4 -1.</_>
        <_>
          15 19 3 2 2.</_>
        <_>
          18 21 3 2 2.</_></rects>
      <tilted>0</tilted></_>
    <_>
      <rects>
        <_>
          15 19 8 4 -1.</_>
        <_>
          15 19 4 2 2.</_>
        <_>
          19 21 4 2 2.</_></rects>
      <tilted>0</tilted></_>
    <_>
      <rects>
        <_>
          15 22 2 2 -1.</_>
        <_>
          15 23 2 1 2.</_></rects>
      <tilted>0</tilted></_>
    <_>
      <rects>
        <_>
          16 0 8 1 -1.</_>
        <_>
          20 0 4 1 2.</_></rects>
      <tilted>0</tilted></_>
    <_>
      <rects>
        <_>
          16 0 5 2 -1.</_>
        <_>
          16 1 5 1 2.</_></rects>
      <tilted>0</tilted></_>
    <_>
      <rects>
        <_>
          16 12 8 8 -1.</_>
        <_>
          16 16 8 4 2.</_></rects>
      <tilted>0</tilted></_>
    <_>
      <rects>
        <_>
          16 22 5 2 -1.</_>
        <_>
          16 23 5 1 2.</_></rects>
      <tilted>0</tilted></_>
    <_>
      <rects>
        <_>
          17 1 2 21 -1.</_>
        <_>
          17 8 2 7 2.</_></rects>
      <tilted>0</tilted></_>
    <_>
      <rects>
        <_>
          17 1 4 2 -1.</_>
        <_>
          17 2 4 1 2.</_></rects>
      <tilted>0</tilted></_>
    <_>
      <rects>
        <_>
          17 3 5 2 -1.</_>
        <_>
          17 4 5 1 2.</_></rects>
      <tilted>0</tilted></_>
    <_>
      <rects>
        <_>
          17 4 4 2 -1.</_>
        <_>
          17 5 4 1 2.</_></rects>
      <tilted>0</tilted></_>
    <_>
      <rects>
        <_>
          17 4 4 8 -1.</_>
        <_>
          17 8 4 4 2.</_></rects>
      <tilted>0</tilted></_>
    <_>
      <rects>
        <_>
          17 5 6 4 -1.</_>
        <_>
          17 7 6 2 2.</_></rects>
      <tilted>0</tilted></_>
    <_>
      <rects>
        <_>
          17 8 2 2 -1.</_>
        <_>
          18 8 1 2 2.</_></rects>
      <tilted>0</tilted></_>
    <_>
      <rects>
        <_>
          17 9 1 2 -1.</_>
        <_>
          17 10 1 1 2.</_></rects>
      <tilted>0</tilted></_>
    <_>
      <rects>
        <_>
          18 1 2 14 -1.</_>
        <_>
          18 8 2 7 2.</_></rects>
      <tilted>0</tilted></_>
    <_>
      <rects>
        <_>
          18 3 2 2 -1.</_>
        <_>
          18 4 2 1 2.</_></rects>
      <tilted>0</tilted></_>
    <_>
      <rects>
        <_>
          18 3 4 3 -1.</_>
        <_>
          20 3 2 3 2.</_></rects>
      <tilted>0</tilted></_>
    <_>
      <rects>
        <_>
          18 3 6 16 -1.</_>
        <_>
          18 3 3 8 2.</_>
        <_>
          21 11 3 8 2.</_></rects>
      <tilted>0</tilted></_>
    <_>
      <rects>
        <_>
          18 3 4 2 -1.</_>
        <_>
          18 4 4 1 2.</_></rects>
      <tilted>0</tilted></_>
    <_>
      <rects>
        <_>
          18 4 2 3 -1.</_>
        <_>
          19 4 1 3 2.</_></rects>
      <tilted>0</tilted></_>
    <_>
      <rects>
        <_>
          18 4 4 2 -1.</_>
        <_>
          20 4 2 2 2.</_></rects>
      <tilted>0</tilted></_>
    <_>
      <rects>
        <_>
          18 4 3 2 -1.</_>
        <_>
          18 5 3 1 2.</_></rects>
      <tilted>0</tilted></_>
    <_>
      <rects>
        <_>
          19 1 2 14 -1.</_>
        <_>
          19 8 2 7 2.</_></rects>
      <tilted>0</tilted></_>
    <_>
      <rects>
        <_>
          19 1 5 12 -1.</_>
        <_>
          19 7 5 6 2.</_></rects>
      <tilted>0</tilted></_>
    <_>
      <rects>
        <_>
          19 13 1 2 -1.</_>
        <_>
          19 14 1 1 2.</_></rects>
      <tilted>0</tilted></_>
    <_>
      <rects>
        <_>
          19 14 3 2 -1.</_>
        <_>
          19 15 3 1 2.</_></rects>
      <tilted>0</tilted></_>
    <_>
      <rects>
        <_>
          19 17 5 2 -1.</_>
        <_>
          19 18 5 1 2.</_></rects>
      <tilted>0</tilted></_>
    <_>
      <rects>
        <_>
          19 19 5 2 -1.</_>
        <_>
          19 20 5 1 2.</_></rects>
      <tilted>0</tilted></_>
    <_>
      <rects>
        <_>
          19 20 3 4 -1.</_>
        <_>
          19 22 3 2 2.</_></rects>
      <tilted>0</tilted></_>
    <_>
      <rects>
        <_>
          20 0 4 8 -1.</_>
        <_>
          20 0 2 4 2.</_>
        <_>
          22 4 2 4 2.</_></rects>
      <tilted>0</tilted></_>
    <_>
      <rects>
        <_>
          20 0 4 24 -1.</_>
        <_>
          22 0 2 24 2.</_></rects>
      <tilted>0</tilted></_>
    <_>
      <rects>
        <_>
          20 4 4 10 -1.</_>
        <_>
          20 4 2 5 2.</_>
        <_>
          22 9 2 5 2.</_></rects>
      <tilted>0</tilted></_>
    <_>
      <rects>
        <_>
          20 10 4 13 -1.</_>
        <_>
          22 10 2 13 2.</_></rects>
      <tilted>0</tilted></_>
    <_>
      <rects>
        <_>
          20 11 4 2 -1.</_>
        <_>
          22 11 2 2 2.</_></rects>
      <tilted>0</tilted></_>
    <_>
      <rects>
        <_>
          20 14 4 2 -1.</_>
        <_>
          20 15 4 1 2.</_></rects>
      <tilted>0</tilted></_>
    <_>
      <rects>
        <_>
          20 16 4 8 -1.</_>
        <_>
          22 16 2 8 2.</_></rects>
      <tilted>0</tilted></_>
    <_>
      <rects>
        <_>
          20 16 3 2 -1.</_>
        <_>
          20 17 3 1 2.</_></rects>
      <tilted>0</tilted></_>
    <_>
      <rects>
        <_>
          20 18 2 2 -1.</_>
        <_>
          20 19 2 1 2.</_></rects>
      <tilted>0</tilted></_>
    <_>
      <rects>
        <_>
          20 18 3 2 -1.</_>
        <_>
          20 19 3 1 2.</_></rects>
      <tilted>0</tilted></_>
    <_>
      <rects>
        <_>
          21 4 2 4 -1.</_>
        <_>
          22 4 1 4 2.</_></rects>
      <tilted>0</tilted></_>
    <_>
      <rects>
        <_>
          21 12 2 2 -1.</_>
        <_>
          21 12 1 1 2.</_>
        <_>
          22 13 1 1 2.</_></rects>
      <tilted>0</tilted></_>
    <_>
      <rects>
        <_>
          21 13 2 2 -1.</_>
        <_>
          21 14 2 1 2.</_></rects>
      <tilted>0</tilted></_>
    <_>
      <rects>
        <_>
          21 15 1 2 -1.</_>
        <_>
          21 16 1 1 2.</_></rects>
      <tilted>0</tilted></_>
    <_>
      <rects>
        <_>
          22 0 2 1 -1.</_>
        <_>
          23 0 1 1 2.</_></rects>
      <tilted>0</tilted></_>
    <_>
      <rects>
        <_>
          22 0 2 22 -1.</_>
        <_>
          23 0 1 22 2.</_></rects>
      <tilted>0</tilted></_>
    <_>
      <rects>
        <_>
          22 7 2 17 -1.</_>
        <_>
          23 7 1 17 2.</_></rects>
      <tilted>0</tilted></_>
    <_>
      <rects>
        <_>
          22 12 1 2 -1.</_>
        <_>
          22 13 1 1 2.</_></rects>
      <tilted>0</tilted></_>
    <_>
      <rects>
        <_>
          22 12 2 2 -1.</_>
        <_>
          22 13 2 1 2.</_></rects>
      <tilted>0</tilted></_>
    <_>
      <rects>
        <_>
          22 13 1 2 -1.</_>
        <_>
          22 14 1 1 2.</_></rects>
      <tilted>0</tilted></_>
    <_>
      <rects>
        <_>
          22 13 2 2 -1.</_>
        <_>
          22 14 2 1 2.</_></rects>
      <tilted>0</tilted></_>
    <_>
      <rects>
        <_>
          23 0 1 2 -1.</_>
        <_>
          23 1 1 1 2.</_></rects>
      <tilted>0</tilted></_>
    <_>
      <rects>
        <_>
          23 11 1 2 -1.</_>
        <_>
          23 12 1 1 2.</_></rects>
      <tilted>0</tilted></_></features></cascade>
</opencv_storage>
